tree
version=v4
num_class=1
num_tree_per_iteration=1
label_index=0
max_feature_idx=27
objective=regression
feature_names=Column_0 Column_1 Column_2 Column_3 Column_4 Column_5 Column_6 Column_7 Column_8 Column_9 Column_10 Column_11 Column_12 Column_13 Column_14 Column_15 Column_16 Column_17 Column_18 Column_19 Column_20 Column_21 Column_22 Column_23 Column_24 Column_25 Column_26 Column_27
feature_infos=[0.27500000000000002:6.0670000000000002] [-2.4169999999999998:2.419] [-1.742:1.7430000000000001] [0.019:5.7000000000000002] [-1.7430000000000001:1.7430000000000001] [0.216:4.1900000000000004] [-2.9409999999999998:2.9700000000000002] [-1.74:1.7410000000000001] [0:2.173] [0.19:5.1929999999999996] [-2.9039999999999999:2.9089999999999998] [-1.7410000000000001:1.7430000000000001] [0:2.2149999999999999] [0.26400000000000001:6.5229999999999997] [-2.7280000000000002:2.7269999999999999] [-1.742:1.742] [0:2.548] [0.36499999999999999:6.0679999999999996] [-2.4950000000000001:2.496] [-1.74:1.7430000000000001] [0:3.1019999999999999] [0.17199999999999999:13.098000000000001] [0.41899999999999998:7.3920000000000003] [0.46100000000000002:3.6819999999999999] [0.38400000000000001:6.5830000000000002] [0.092999999999999999:7.8600000000000003] [0.38900000000000001:4.5430000000000001] [0.44500000000000001:4.0730000000000004]
tree_sizes=2729 2871 2848 2875 2882 2885 2866 2873 2849 2876

Tree=0
num_leaves=31
num_cat=0
split_feature=25 26 27 22 24 5 5 25 25 25 24 27 24 26 26 25 22 25 25 26 27 25 0 21 21 25 23 21 9 13
split_gain=71.8908 40.7912 42.7829 17.2611 20.1501 14.8383 12.211 11.1725 10.5234 7.46119 6.22533 9.20147 6.11165 5.53741 5.17171 5.14223 4.21142 4.15216 4.54583 4.00203 4.41365 5.36862 3.8005 3.6917 4.90675 3.64848 3.48274 3.44357 3.43911 3.40024
threshold=1.2435000000000003 0.80950000000000022 0.90350000000000008 1.0435000000000001 1.0745000000000002 0.88250000000000017 1.3395000000000004 0.98450000000000004 0.66850000000000021 1.8940000000000001 1.2485000000000002 0.89550000000000007 0.73050000000000004 0.86950000000000005 0.72850000000000004 0.47350000000000003 1.0475000000000001 0.6885 1.0035000000000001 0.72850000000000004 0.83850000000000013 0.94550000000000012 1.3905000000000001 1.0955000000000001 0.58250000000000013 0.62050000000000016 0.98050000000000004 1.1215000000000004 1.1425000000000003 1.2455000000000003
decision_type=2 2 2 2 2 2 2 2 2 2 2 2 2 2 2 2 2 2 2 2 2 2 2 2 2 2 2 2 2 2
left_child=1 6 5 4 22 7 12 8 29 10 11 23 14 -10 26 -5 -13 -7 -19 -14 21 -21 -4 24 -2 -6 -1 -15 -28 -3
right_child=9 2 3 15 25 17 -8 -9 13 -11 -12 16 19 27 -16 -17 -18 18 -20 20 -22 -23 -24 -25 -26 -27 28 -29 -30 -31
leaf_value=0.51247342416778341 0.54143095226231075 0.52886481507067329 0.52129043764006244 0.52397063532235133 0.52459421807020701 0.54068398683172425 0.54507836856698311 0.52844393966234093 0.53810008633641171 0.51444149956713847 0.53120210374607235 0.51261321913099833 0.51902835552736282 0.54986708412390672 0.53743095238152006 0.53888357104619689 0.52368541707688321 0.55180757532968661 0.54153756206723591 0.53260909708982129 0.51621049446014711 0.51648589806067635 0.50971666749318445 0.54255877177757128 0.52270231303919634 0.53523208523496835 0.52719002120441283 0.53298939407233037 0.54610128179345374 0.55071666627128923
leaf_weight=37 42 162 244 63 98 153 94 198 193 298 206 261 308 359 175 701 128 550 134 251 81 65 100 38 209 454 319 33 26 20
leaf_count=37 42 162 244 63 98 153 94 198 193 298 206 261 308 359 175 701 128 550 134 251 81 65 100 38 209 454 319 33 26 20
internal_value=0.532333 0.535044 0.537923 0.532132 0.527424 0.543258 0.527693 0.539033 0.541766 0.521284 0.52359 0.521277 0.526398 0.545033 0.530313 0.537654 0.516257 0.54813 0.549796 0.523305 0.526623 0.529293 0.517926 0.528035 0.525836 0.533343 0.527052 0.548446 0.528615 0.531266
internal_weight=6000 4818 3462 1660 896 1802 1356 965 767 1182 884 678 1262 585 557 764 389 837 684 705 397 316 344 289 251 552 382 392 345 182
internal_count=6000 4818 3462 1660 896 1802 1356 965 767 1182 884 678 1262 585 557 764 389 837 684 705 397 316 344 289 251 552 382 392 345 182
is_linear=0
shrinkage=1


Tree=1
num_leaves=31
num_cat=0
split_feature=25 25 26 27 25 5 26 24 25 22 27 13 22 24 5 27 0 22 3 22 3 27 24 9 26 24 22 5 25 25
split_gain=65.5857 45.5115 27.9722 25.1295 12.314 9.84339 9.84266 9.81876 8.8461 7.19033 9.57681 6.79528 6.13249 11.7478 4.30713 4.21379 4.17918 3.93723 3.85648 3.84664 3.77396 3.57491 3.51053 3.47875 3.46674 3.17404 3.02343 2.98011 3.24594 2.91406
threshold=1.0675000000000001 0.62050000000000016 0.77650000000000008 0.90350000000000008 1.5645000000000002 0.81250000000000011 0.86650000000000016 1.2765000000000002 0.84150000000000003 1.0275000000000001 0.90350000000000008 0.9425 1.0435000000000001 1.0025000000000002 0.98150000000000015 0.83650000000000013 1.3215000000000001 1.1015000000000004 1.6220000000000001 0.72650000000000003 1.8255000000000001 1.0125000000000002 1.5065000000000002 1.1335000000000002 1.0005000000000002 0.73350000000000015 0.78850000000000009 1.0035000000000001 0.98450000000000004 0.51150000000000018
decision_type=2 2 2 2 2 2 2 2 2 2 2 2 2 2 2 2 2 2 2 2 2 2 2 2 2 2 2 2 2 2
left_child=1 11 5 6 7 -3 8 9 -4 10 14 17 13 25 -2 -13 -10 19 -15 -1 22 -14 24 -21 -6 -5 -27 28 -8 -19
right_child=4 2 3 12 20 -7 27 -9 16 -11 -12 15 21 18 -16 -17 -18 29 -20 23 -22 -23 -24 -25 -26 26 -28 -29 -30 -31
leaf_value=-0.00046421545473012061 -0.0092457620923717815 -0.0097076335735619065 0.01236729666263706 0.00090510881528621772 -0.00074323218229205117 0.0057112232337590135 0.014842528043228255 0.0035030025769682491 0.0024160401831413141 -0.0010019360096366317 -0.018949303795982683 0.0053302879377109258 0.012929239378699773 0.0070674127058966184 0.0031490627111810626 -0.0052330727577209477 -0.016088629896576341 -0.0050115123391151432 -0.0039488407156684181 -0.012022557860394663 -0.025828423251708352 0.003930138597071497 -0.0031435074935476461 0.00024752754431504469 -0.01562693702391765 0.002601671289829981 -0.01796334322541952 0.019301457616730015 0.0039175660966278671 0.011905991621315479
leaf_weight=110 240 320 319 41 43 153 581 255 174 270 224 205 158 286 99 175 37 70 110 519 60 366 83 65 434 21 120 345 77 40
leaf_count=110 240 320 319 41 43 153 581 255 174 270 224 205 158 286 99 175 37 70 110 519 60 366 83 65 434 21 120 345 77 40
internal_value=-5.91079e-11 0.00329771 0.00647559 0.00848529 -0.00828676 -0.00472014 0.0126252 -0.00508192 0.00711373 -0.00770995 -0.0109269 -0.00504419 0.00272623 -0.000825171 -0.00562603 0.000465582 -0.000828855 -0.00764832 0.00400734 -0.00904133 -0.0139108 0.00664361 -0.0126339 -0.0106569 -0.0142852 -0.0113399 -0.0149005 0.0155376 0.0135641 0.00114031
internal_weight=6000 4292 3108 2635 1708 473 1533 1088 530 833 563 1184 1102 578 339 380 211 804 396 694 620 524 560 584 477 182 141 1003 658 110
internal_count=6000 4292 3108 2635 1708 473 1533 1088 530 833 563 1184 1102 578 339 380 211 804 396 694 620 524 560 584 477 182 141 1003 658 110
is_linear=0
shrinkage=0.05


Tree=2
num_leaves=31
num_cat=0
split_feature=25 25 26 27 25 22 5 26 25 5 27 5 22 24 24 27 13 9 27 27 1 22 3 0 13 27 24 26 22 0
split_gain=59.1911 41.0742 25.2449 22.6794 11.1134 8.90513 8.88366 8.883 7.98361 6.63212 6.38057 6.36853 5.53457 10.6024 4.21274 4.13687 4.96777 4.55976 4.00467 3.98849 3.82922 3.80971 3.406 3.27522 3.2343 3.22636 3.16825 3.22505 3.09868 2.99217
threshold=1.0675000000000001 0.62050000000000016 0.77650000000000008 0.90350000000000008 1.5645000000000002 1.0275000000000001 0.81250000000000011 0.86650000000000016 0.84150000000000003 1.3525000000000003 1.0415000000000003 0.98150000000000015 1.0435000000000001 1.0025000000000002 1.3045000000000002 0.84650000000000014 0.8135 1.0045000000000002 0.79250000000000009 0.98850000000000005 0.87250000000000016 1.0435000000000001 1.8255000000000001 1.518 0.68550000000000011 1.0125000000000002 1.5065000000000002 1.2075000000000002 1.1245000000000003 1.1215000000000004
decision_type=2 2 2 2 2 2 2 2 2 2 2 2 2 2 2 2 2 2 2 2 2 2 2 2 2 2 2 2 2 2
left_child=1 9 6 7 5 10 -3 8 -4 15 11 -2 13 29 -12 16 17 -1 -10 -11 -15 -17 26 -18 -22 -14 27 28 -6 -5
right_child=4 2 3 12 22 -7 -8 -9 18 19 14 -13 25 20 -16 21 23 -19 -20 -21 24 -23 -24 -25 -26 -27 -28 -29 -30 -31
leaf_value=-0.0092549478454603054 -0.009268518648613458 -0.0092222520895302289 0.011748932143176986 -0.0051582273059678314 -0.011283338962433239 0.0015255422865758177 0.0054256620457748964 0.014760674561484386 0.0036559833776230784 0.013502694827479287 -0.021870137789639935 0.0021722684330481262 0.012282777530483053 0.0065117709975885717 -0.0064063745904976216 -0.01389171646302005 -0.0005356591991982606 0.0057379632177999469 -0.011465895392241018 -0.0044662477835169375 0.010649669480820497 -0.0031938470363616946 -0.024537001997232438 0.016095056560109646 -0.010700124677489787 0.0037336310239437505 -0.0029863327023494676 -0.017342834059566145 0.0071095380645531878 -0.018093243750590314
leaf_weight=361 348 320 319 103 192 366 153 1003 149 74 116 187 158 304 71 249 229 59 62 53 24 125 60 34 68 366 83 259 26 79
leaf_count=361 348 320 319 103 192 366 153 1003 149 74 116 187 158 304 71 249 229 59 62 53 24 125 60 34 68 366 83 259 26 79
internal_value=1.14242e-11 0.00313283 0.00615181 0.00806103 -0.00787243 -0.00482782 -0.00448413 0.0119939 0.00675805 -0.00479199 -0.0080485 -0.00526959 0.00258991 -0.000783913 -0.0159989 -0.00608912 -0.00377442 -0.0071488 -0.000787412 0.00600384 0.00380697 -0.0103162 -0.0132152 0.00161432 -0.00513061 0.00631143 -0.0120022 -0.013571 -0.00908969 -0.0107729
internal_weight=6000 4292 3108 2635 1708 1088 473 1533 530 1184 722 535 1102 578 187 1057 683 420 211 127 396 374 620 263 92 524 560 477 218 182
internal_count=6000 4292 3108 2635 1708 1088 473 1533 530 1184 722 535 1102 578 187 1057 683 420 211 127 396 374 620 263 92 524 560 477 218 182
is_linear=0
shrinkage=0.05


Tree=3
num_leaves=31
num_cat=0
split_feature=25 26 27 22 24 5 5 25 25 27 24 24 15 21 22 26 25 21 2 26 0 25 3 5 1 3 26 26 27 25
split_gain=53.5782 31.0658 32.412 13.1164 15.3863 11.832 9.94257 7.72219 7.55125 5.79821 8.60592 5.38341 4.74047 4.42877 4.10062 4.08105 4.0723 3.8877 4.1467 3.8784 3.52641 3.3398 3.32889 3.31534 4.4924 3.29676 3.18568 3.17816 3.64524 4.55766
threshold=1.2435000000000003 0.80950000000000022 0.90650000000000019 1.0435000000000001 1.0745000000000002 0.88250000000000017 1.3395000000000004 0.98450000000000004 0.66850000000000021 1.0715000000000001 1.3355000000000004 0.73050000000000004 -1.5694999999999999 1.0635000000000001 1.1935000000000002 0.72850000000000004 0.46450000000000008 0.57450000000000012 1.5605000000000002 0.86950000000000005 1.1215000000000004 0.85150000000000003 1.8255000000000001 0.81250000000000011 -0.70749999999999991 2.4305000000000003 0.88350000000000006 0.72850000000000004 0.83850000000000013 0.94550000000000012
decision_type=2 2 2 2 2 2 2 2 2 2 2 2 2 2 2 2 2 2 2 2 2 2 2 2 2 2 2 2 2 2
left_child=1 6 5 4 20 7 11 8 -3 12 -11 15 -2 19 17 -1 -5 -14 -19 21 -4 -10 -12 24 -6 -18 -9 -13 29 -29
right_child=9 2 3 16 23 -7 -8 26 13 10 22 27 14 -15 -16 -17 25 18 -20 -21 -22 -23 -24 -25 -26 -27 -28 28 -30 -31
leaf_value=-0.0044662627211103888 0.015990777184133945 -0.00085585986440246177 -0.0086547239815316559 -0.0082570299506187442 0.0073530614927962978 0.013753141206552058 0.011612588484236535 -0.010859805477570886 0.011134873693053788 -0.018319896019682914 -0.0023717284115434391 -0.011957541790294957 0.0041088365789117487 -0.0021460999796787898 0.0090045457756197135 0.0047537800584520618 0.0063724767031340772 -0.010590715800429071 0.0095355653100543565 0.015155030645075299 -0.01910895661527949 -0.0035068045059839883 -0.018235185124525211 0.0035492920671423827 -0.0098636386432046971 -0.010571144918600719 0.0020072994435705793 0.00029223867621554797 -0.014652424958752998 -0.014563380548587213
leaf_weight=382 23 185 205 57 54 849 94 79 111 334 171 308 58 60 37 175 667 491 27 357 133 60 41 365 127 30 123 251 81 65
leaf_count=382 23 185 205 57 54 849 94 79 111 334 171 308 58 60 37 175 667 491 27 357 133 60 41 365 127 30 123 251 81 65
internal_value=1.01825e-11 0.00234026 0.00485298 -0.000252245 -0.00438443 0.00943761 -0.00407497 0.00567978 0.00795447 -0.00953923 -0.0133188 -0.00524345 -0.00629452 0.0107264 -0.00713067 -0.00156948 0.00459238 -0.00816713 -0.00954166 0.0121892 -0.0127684 0.00599744 -0.00543966 0.000805632 -0.00472716 0.0056432 -0.00302489 -0.00814615 -0.0051892 -0.00276351
internal_weight=6000 4818 3462 1638 884 1824 1356 975 773 1182 546 1262 636 588 613 557 754 576 518 528 338 171 212 546 181 697 202 705 397 316
internal_count=6000 4818 3462 1638 884 1824 1356 975 773 1182 546 1262 636 588 613 557 754 576 518 528 338 171 212 546 181 697 202 705 397 316
is_linear=0
shrinkage=0.05


Tree=4
num_leaves=31
num_cat=0
split_feature=25 25 26 27 25 24 26 25 9 5 27 22 5 22 24 13 21 5 0 0 27 23 25 19 27 3 21 14 3 0
split_gain=48.9561 34.8047 18.8164 18.1265 9.20133 8.25244 7.39545 7.2475 6.86853 6.48022 5.95806 6.65188 4.56198 4.52858 7.80947 4.43832 4.15089 4.08938 5.07879 4.03239 3.89778 3.43599 3.44967 3.32992 3.32475 3.30164 3.10514 2.93233 2.87801 2.85646
threshold=1.0675000000000001 0.66850000000000021 0.77650000000000008 0.90350000000000008 1.5645000000000002 1.2765000000000002 0.86950000000000005 0.84150000000000003 1.1385000000000003 0.81250000000000011 0.90350000000000008 1.0475000000000001 0.88950000000000007 1.0435000000000001 1.0025000000000002 1.2995000000000003 1.3495000000000001 0.90350000000000008 1.9030000000000002 1.7225000000000004 0.83850000000000013 1.1335000000000002 0.62050000000000016 1.2155000000000002 0.79250000000000009 1.6220000000000001 0.6605000000000002 1.2245000000000001 1.8255000000000001 1.1215000000000004
decision_type=2 2 2 2 2 2 2 2 2 2 2 2 2 2 2 2 2 2 2 2 2 2 2 2 2 2 2 2 2 2
left_child=1 8 9 6 5 10 7 -4 15 27 12 -12 16 14 29 17 23 18 -1 21 -10 22 -19 -2 -9 -16 -14 -3 -6 -5
right_child=4 2 3 13 28 -7 -8 24 20 -11 11 -13 26 -15 25 -17 -18 19 -20 -21 -22 -23 -24 -25 -26 -27 -28 -29 -30 -31
leaf_value=-0.009384262310900067 -0.011681519094670174 -0.010182542596089007 0.011833106840613984 -0.0038322609976718298 -0.010905944872647524 0.0034812618003172038 0.013938389464317476 0.0035665851812692558 0.010632010253852811 0.0050302537282307944 -0.016582865432157354 -0.0028870517833971643 0.01529263287782669 0.0060907169269741671 0.0064188503753740108 0.0039599380197645239 0.014078796761376517 -0.0036857604816719729 0.0074416221429904304 -0.01286825150732071 -0.0017418941707475811 0.016955501369891629 0.012877378142193745 0.0042768123058172375 -0.0099296740489080559 -0.0040000396235933848 -0.00035373104943169488 0.0063863750298817955 -0.022428338925043742 -0.017036528637011848
leaf_weight=683 202 243 274 95 560 255 932 159 116 135 236 142 40 493 269 119 21 182 48 62 141 31 38 39 64 106 153 30 60 72
leaf_count=683 202 243 274 95 560 255 932 159 116 135 236 142 40 493 269 119 21 182 48 62 141 31 38 39 64 106 153 30 60 72
internal_value=3.72529e-12 0.00284913 0.00601513 0.00766199 -0.00715952 -0.00438918 0.0113117 0.00638603 -0.00355422 -0.00393059 -0.0067985 -0.0114379 -0.00294425 0.00262289 -0.000531418 -0.00518891 -0.00724128 -0.00623174 -0.00827942 -0.00144945 0.00384321 0.00137113 -0.000824855 -0.00909905 -0.000306781 0.00347378 0.00288904 -0.00836178 -0.012021 -0.00952512
internal_weight=6000 4292 2872 2464 1708 1088 1429 497 1420 408 833 378 455 1035 542 1163 262 1044 731 313 257 251 220 241 223 375 193 273 620 167
internal_count=6000 4292 2872 2464 1708 1088 1429 497 1420 408 833 378 455 1035 542 1163 262 1044 731 313 257 251 220 241 223 375 193 273 620 167
is_linear=0
shrinkage=0.05


Tree=5
num_leaves=31
num_cat=0
split_feature=25 25 26 27 25 24 5 26 25 27 22 5 0 3 5 5 27 1 21 27 13 24 16 23 27 9 0 22 19 21
split_gain=44.1829 31.4554 18.9226 16.6771 8.3042 7.44783 6.93753 6.52968 6.53834 5.37715 6.00332 5.26626 4.85525 4.48804 5.17461 4.11719 3.95413 3.80118 3.74618 3.6979 4.73196 3.51414 3.33017 3.27456 3.25003 3.13554 3.12381 3.01049 3.00525 2.80239
threshold=1.0675000000000001 0.62050000000000016 0.77650000000000008 0.90350000000000008 1.5645000000000002 1.2765000000000002 0.81250000000000011 0.86650000000000016 0.94550000000000012 0.90350000000000008 1.0475000000000001 1.3525000000000003 1.3215000000000001 2.0380000000000007 0.81250000000000011 0.88950000000000007 0.79950000000000021 0.95250000000000001 1.3495000000000001 0.90650000000000019 0.93650000000000022 0.94550000000000012 1.0000000180025095e-35 1.0885000000000002 0.98850000000000005 1.1495000000000002 1.9030000000000002 0.99750000000000016 1.2155000000000002 0.6605000000000002
decision_type=2 2 2 2 2 2 2 2 2 2 2 2 2 2 2 2 2 2 2 2 2 2 2 2 2 2 2 2 2 2
left_child=1 11 6 7 5 9 -3 8 16 15 -11 19 13 14 -5 18 -4 21 28 20 25 27 23 -21 -13 26 -1 -14 -2 -17
right_child=4 2 3 12 -6 -7 -8 -9 -10 10 -12 24 17 -15 -16 29 -18 -19 -20 22 -22 -23 -24 -25 -26 -27 -28 -29 -30 -31
leaf_value=-0.0081408002239659553 -0.011097443066906222 -0.0080467737000435597 0.011020667477330166 -0.00033180322036270273 -0.011419964281301346 0.003307198607454113 0.0048976344318171737 0.012746216928733074 -0.0067334693878196008 -0.015753721868840314 -0.0027426991769125765 0.012160862841316171 -0.018695743728515714 -0.0065289468625012578 0.0086478563729955379 0.0145280010253191 5.7117066798953835e-05 -0.017474306300282478 0.013374856894924528 -0.0088371099149885252 0.0026892834525799082 0.0027005206056457155 -0.016552692871601854 0.010720949333447678 -0.0040595511501690133 0.0055642832843762523 0.0087460928435983323 0.0021502061136837664 0.0040629717019888077 -0.00033604425737281254
leaf_weight=492 202 320 335 242 620 255 153 1003 86 236 142 74 43 85 476 40 109 40 21 121 214 187 122 26 53 53 29 29 39 153
leaf_count=492 202 320 335 242 620 255 153 1003 86 236 142 74 43 85 476 40 109 40 21 121 214 187 122 26 53 53 29 29 39 153
internal_value=-1.91232e-11 0.00270667 0.00534861 0.00700156 -0.00680154 -0.00416972 -0.00385968 0.0103741 0.00588504 -0.00645857 -0.010866 -0.00422842 0.00230997 0.00433515 0.00562129 -0.00279703 0.00832917 -0.00312888 -0.00687922 -0.00538429 -0.00365637 -0.000913373 -0.010446 -0.00537786 0.00539171 -0.00602218 -0.00720084 -0.0102995 -0.0086441 0.00274459
internal_weight=6000 4292 3108 2635 1708 1088 473 1533 530 833 378 1184 1102 803 718 455 444 299 262 1057 788 259 269 147 127 574 521 72 241 193
internal_count=6000 4292 3108 2635 1708 1088 473 1533 530 833 378 1184 1102 803 718 455 444 299 262 1057 788 259 269 147 127 574 521 72 241 193
is_linear=0
shrinkage=0.05


Tree=6
num_leaves=31
num_cat=0
split_feature=25 26 27 5 22 24 5 25 25 27 24 24 15 22 21 22 24 25 26 0 9 27 17 2 21 17 22 5 17 27
split_gain=39.9832 23.5019 23.9279 10.3103 10.2566 13.0984 7.95966 7.11113 5.41604 4.92613 6.99916 4.62369 3.93931 3.99547 3.66618 3.66363 3.38481 3.13991 3.09602 3.08428 3.06685 3.02978 2.95019 2.91801 3.26774 2.84505 3.23087 2.8307 2.82902 2.80048
threshold=1.2635000000000003 0.80950000000000022 0.90350000000000008 0.88250000000000017 1.0435000000000001 1.0745000000000002 1.3395000000000004 0.98450000000000004 0.66850000000000021 1.0715000000000001 1.3355000000000004 0.73050000000000004 -1.5694999999999999 1.1935000000000002 1.0635000000000001 1.0875000000000001 0.69850000000000001 0.46450000000000008 0.86950000000000005 1.4885000000000004 0.99050000000000005 0.75450000000000006 1.2715000000000003 1.5605000000000002 0.57450000000000012 0.51650000000000007 0.73550000000000015 1.0305000000000002 1.5975000000000004 1.0615000000000003
decision_type=2 2 2 2 2 2 2 2 2 2 2 2 2 2 2 2 2 2 2 2 2 2 2 2 2 2 2 2 2 2
left_child=1 6 3 7 5 -4 11 8 -3 12 -11 15 -2 23 18 19 -9 -6 -10 25 -18 -8 -12 24 -14 -1 -27 -7 -13 -29
right_child=9 2 4 -5 17 27 21 16 14 10 22 28 13 -15 -16 -17 20 -19 -20 -21 -22 -23 -24 -25 -26 26 -28 29 -30 -31
leaf_value=-0.012045885402370584 0.015436274558305742 -0.00070445439317724215 -0.01135796107415825 0.012154185153702472 -0.0069922219898741131 -0.0021597729788886176 0.016288777621406497 0.013636200189590454 0.0049704525292965408 -0.016469687496016665 -0.0090316436369053642 -0.0079821855817346753 0.0036757193781711442 0.010014604859881933 -0.0026467362702903103 0.0088903868546733617 -0.010089566787848107 0.005012071088586055 0.013159855310346039 0.011223059934046535 0.0042778452141926842 -0.0033397712877818518 0.00352684584721713 0.0098622776567935944 -0.0093157239625234426 0.011979417543153506 -0.0036239432304447684 0.010599667266902762 0.0077075598637262981 -8.265417675639309e-05
leaf_weight=88 22 182 349 846 59 315 66 25 171 328 137 679 54 36 59 77 130 710 355 36 52 28 71 24 467 37 321 117 30 129
leaf_count=88 22 182 349 846 59 315 66 25 171 328 137 679 54 36 59 77 130 710 355 36 52 28 71 24 467 37 321 117 30 129
internal_value=-3.77496e-11 0.00197575 0.00414483 0.0081162 -0.000160053 -0.00375248 -0.00359664 0.00460887 0.00682833 -0.00843207 -0.0119198 -0.00463736 -0.0053319 -0.0061183 0.00917186 -0.00123702 -0.00361493 0.00409107 0.0104975 -0.00285489 -0.00598459 0.010442 -0.00474485 -0.00718396 -0.0079692 -0.00399122 -0.00201131 0.000978913 -0.0073183 0.00499796
internal_weight=6000 4861 3499 1820 1679 910 1362 974 767 1139 536 1268 603 581 585 559 207 769 526 482 182 94 208 545 521 446 358 561 709 246
internal_count=6000 4861 3499 1820 1679 910 1362 974 767 1139 536 1268 603 581 585 559 207 769 526 482 182 94 208 545 521 446 358 561 709 246
is_linear=0
shrinkage=0.05


Tree=7
num_leaves=31
num_cat=0
split_feature=25 25 26 27 25 22 27 26 25 9 5 5 3 5 24 22 27 5 0 0 27 6 25 0 25 18 21 4 24 24
split_gain=36.5879 26.8149 14.1195 13.3146 7.13158 7.51727 5.85769 5.59458 6.99238 5.53149 5.10009 4.9924 3.94742 3.70211 3.48421 3.47673 4.0641 4.96436 3.86063 3.46592 3.23245 2.96661 2.89785 3.2258 2.86335 2.92517 2.82255 2.7922 2.77624 2.7686
threshold=1.0675000000000001 0.66850000000000021 0.77650000000000008 0.90350000000000008 1.8940000000000001 1.0275000000000001 1.0415000000000003 0.88650000000000018 0.94550000000000012 1.0805000000000002 1.4555000000000002 0.81250000000000011 2.4305000000000003 1.2650000000000003 1.5065000000000002 1.1015000000000004 0.85250000000000015 0.88950000000000007 1.7545000000000002 1.7905000000000002 0.80150000000000021 -1.5664999999999998 0.98950000000000016 1.2825000000000002 0.51150000000000018 -0.24849999999999997 0.57450000000000012 1.1515000000000002 1.2485000000000002 1.3355000000000004
decision_type=2 2 2 2 2 2 2 2 2 2 2 2 2 2 2 2 2 2 2 2 2 2 2 2 2 2 2 2 2 2
left_child=1 9 11 7 5 6 10 8 20 15 26 -3 13 21 -8 16 17 18 -1 -15 -4 -5 23 -23 25 -17 -2 -24 -28 -7
right_child=4 2 3 12 -6 29 14 -9 -10 -11 -12 -13 -14 19 -16 24 -18 -19 -20 -21 -22 22 27 -25 -26 -27 28 -29 -30 -31
leaf_value=-0.0072298076131214325 0.0043315041313568758 -0.0072628099293935867 0.011142765179752037 -0.010135492710572369 -0.013217224940757624 -0.0016931124567985537 -0.017152822956753275 0.012554962688417576 -0.0048300165426114518 0.0027721319008957258 0.012224423667279686 0.0044917538872471562 -0.010811308412640185 0.011278441881955561 -0.0039822777404504668 -0.017779135041766699 -0.010918156913620362 0.0039564718240462015 0.010185395619448494 -0.002989284501031593 0.002073443675399723 0.0058977438671043124 -0.0014242231577366324 -0.0032089834372828331 0.009034848290604431 0.0039920941823058656 -0.0085390994398856623 -0.02171983689069748 0.0013125897518226079 0.0073599214674135967
leaf_weight=497 60 273 376 53 298 375 192 804 116 308 41 135 54 201 68 27 282 159 34 54 133 415 111 127 77 36 481 20 84 109
leaf_count=497 60 273 376 53 298 375 192 804 116 308 41 135 54 201 68 27 282 159 34 54 133 415 111 127 77 36 481 20 84 109
internal_value=-5.91079e-11 0.00246307 0.00524202 0.00666861 -0.00618941 -0.0047041 -0.00734351 0.00979661 0.00624827 -0.00315745 -0.0048588 -0.00337343 0.00234985 0.00307431 -0.0137082 -0.00479981 -0.00586086 -0.00379396 -0.00611471 0.00825704 0.00877298 0.00125393 0.00215087 0.00376388 0.00256687 -0.00533843 -0.00597945 -0.00452279 -0.00707442 0.000345691
internal_weight=6000 4292 2872 2464 1708 1410 926 1429 625 1420 666 408 1035 981 260 1112 972 690 531 255 509 726 673 542 140 63 625 131 565 484
internal_count=6000 4292 2872 2464 1708 1410 926 1429 625 1420 666 408 1035 981 260 1112 972 690 531 255 509 726 673 542 140 63 625 131 565 484
is_linear=0
shrinkage=0.05


Tree=8
num_leaves=31
num_cat=0
split_feature=25 25 26 27 25 22 5 27 5 5 13 25 3 5 0 11 24 21 7 27 22 22 22 6 27 0 17 18 0 25
split_gain=33.0206 24.2467 14.2301 12.2942 6.43625 6.78434 5.40728 5.30142 5.07149 4.92856 4.63047 4.34105 4.17398 3.8494 3.63706 3.18266 2.95338 2.891 2.86435 2.81298 2.74688 2.71206 3.28034 2.6363 2.61785 2.58445 2.54337 3.55449 3.14126 3.58351
threshold=1.0675000000000001 0.62050000000000016 0.77650000000000008 0.90350000000000008 1.8940000000000001 1.0275000000000001 0.80150000000000021 1.0045000000000002 1.256 0.88250000000000017 0.9425 0.96550000000000014 1.9175000000000002 1.2405000000000002 1.7395000000000003 -0.39449999999999996 1.5065000000000002 1.0635000000000001 0.57150000000000001 0.83650000000000013 1.0735000000000003 1.1015000000000004 0.72650000000000003 -1.9409999999999996 0.75650000000000006 1.7545000000000002 0.69450000000000001 1.1920000000000002 1.0375000000000003 0.98950000000000016
decision_type=2 2 2 2 2 2 2 2 2 2 2 2 2 2 2 2 2 2 2 2 2 2 2 2 2 2 2 2 2 2
left_child=1 10 6 9 5 7 20 8 25 11 21 17 13 23 -15 -14 -9 -4 -18 -12 -3 22 -1 -5 -8 -2 27 -25 29 -28
right_child=4 2 3 12 -6 -7 24 16 -10 -11 19 -13 15 14 -16 -17 18 -19 -20 -21 -22 -23 -24 26 -26 -27 28 -29 -30 -31
leaf_value=0.00086595390330661433 -0.0069142450409506286 -0.0086623276343615243 0.008947440606963104 -0.01246395463293249 -0.01255636378222664 0.00032840612198203065 0.0071732282297301848 -0.01535505190023927 0.0076493018246316302 0.012032875715849106 0.0047740506180902814 -0.0024390636384487153 0.0035121118856800931 0.011644611559808254 -0.0027717607361929762 -0.011975447105806928 -0.01079462742805481 -0.0015651916600253485 0.0099334237575531004 -0.0038567122902188988 0.0077548145183495114 0.0013956165449185804 -0.0085465713723065113 0.0002515064099350491 -0.0089846204846136032 0.0075171301762262987 0.0094827256387188322 -0.017895713764609713 -0.001205463580628659 -0.0049337569051063979
leaf_weight=110 518 283 628 33 298 484 131 223 77 712 205 120 54 200 56 86 50 73 25 175 28 110 584 148 31 33 252 33 188 52
leaf_count=110 518 283 628 33 298 484 131 223 77 712 205 120 54 200 56 86 50 73 25 175 28 110 584 148 31 33 252 33 188 52
internal_value=1.29143e-11 0.00233992 0.00465946 0.00609288 -0.00587994 -0.00446889 -0.00332587 -0.00697634 -0.00437025 0.00898855 -0.00374888 0.00634841 0.00206469 0.00323859 0.00849103 -0.00600167 -0.0124684 0.00785269 -0.00388528 0.000799357 -0.00718426 -0.00589854 -0.00705467 0.00133402 0.00408129 -0.00604993 0.00201059 -0.0030571 0.00387493 0.00701675
internal_weight=6000 4292 3108 2635 1708 1410 473 926 628 1533 1184 821 1102 962 256 140 298 701 75 380 311 804 694 706 162 551 673 181 492 304
internal_count=6000 4292 3108 2635 1708 1410 473 926 628 1533 1184 821 1102 962 256 140 298 701 75 380 311 804 694 706 162 551 673 181 492 304
is_linear=0
shrinkage=0.05


Tree=9
num_leaves=31
num_cat=0
split_feature=25 26 27 5 22 24 5 26 25 24 27 24 25 17 22 3 0 13 9 3 25 22 21 23 27 5 25 5 1 4
split_gain=30.0658 18.1401 16.9845 9.19064 8.43047 11.2055 7.02609 5.76784 6.85498 4.17105 4.06722 6.62651 3.75503 3.5095 3.33955 3.25439 3.02279 2.92726 3.19001 2.90228 2.83402 2.80836 3.36412 2.69234 2.87534 2.89964 2.63296 2.6077 2.7334 3.4998
threshold=1.2635000000000003 0.79050000000000009 0.90650000000000019 0.88250000000000017 1.0435000000000001 1.0745000000000002 1.3395000000000004 0.88650000000000018 0.89450000000000018 0.73050000000000004 0.89350000000000007 1.2485000000000002 0.47350000000000003 1.2715000000000003 1.0875000000000001 1.6020000000000001 1.1025000000000003 1.1965000000000001 1.1495000000000002 0.92250000000000021 0.46450000000000008 0.72650000000000003 0.9195000000000001 1.3165000000000002 0.74250000000000005 0.81650000000000011 1.7765000000000002 0.91150000000000009 -0.70749999999999991 0.37750000000000006
decision_type=2 2 2 2 2 2 2 2 2 2 2 2 2 2 2 2 2 2 2 2 2 2 2 2 2 2 2 2 2 2
left_child=1 6 3 7 5 -4 9 8 12 14 16 -12 -3 26 17 -14 19 18 21 -2 -6 -1 -23 24 25 -11 -13 28 -7 -30
right_child=10 2 4 -5 20 27 -8 -9 -10 23 11 13 15 -15 -16 -17 -18 -19 -20 -21 -22 22 -24 -25 -26 -27 -28 -29 29 -31
leaf_value=0.0054223985088114844 0.003831490691454133 -0.0090591775178909314 -0.010551912164619795 0.010316611151806638 -0.0070114523943128259 0.0049222899278004969 0.010491710428784533 0.0072327980404723203 -0.0081058051832561383 -0.0076326002950196752 -0.012360180169343949 -0.0016891320458555644 0.0070744975103485975 0.0043825613225207611 0.0087928710640340618 -0.01102459381024043 -0.014637847935281148 0.0074018480666613179 0.011757107717650277 -0.0079474443739110789 0.00448786685426069 -0.011369502786638702 -0.00089064545747710451 0.0060604400056249955 -0.01288059417107334 0.0047662218150339632 -0.012857853583615237 0.003884106034496028 -0.00089642179126922907 -0.015757124428637328
leaf_weight=49 163 50 349 899 58 75 82 533 179 273 544 113 310 102 69 27 41 59 28 77 703 203 123 34 219 57 99 314 104 64
leaf_count=49 163 50 349 899 58 75 82 533 179 273 544 113 310 102 69 27 41 59 28 77 703 203 123 34 219 57 99 314 104 64
internal_value=-1.7633e-11 0.00171329 0.00345813 0.00656719 -0.000268275 -0.00352706 -0.00363357 0.0035001 -1.49608e-05 -0.00467331 -0.00731193 -0.00902181 0.00372732 -0.00323815 -0.0014675 0.00562442 -0.002091 -0.0029999 -0.00452273 5.24157e-05 0.00361144 -0.0057383 -0.00741582 -0.00759317 -0.00843875 -0.00549099 -0.00690471 0.000874501 -0.00301445 -0.00655764
internal_weight=6000 4861 3665 1998 1667 906 1196 1099 566 1114 1139 858 387 314 531 337 281 462 403 240 761 375 326 583 549 330 212 557 243 168
internal_count=6000 4861 3665 1998 1667 906 1196 1099 566 1114 1139 858 387 314 531 337 281 462 403 240 761 375 326 583 549 330 212 557 243 168
is_linear=0
shrinkage=0.05


end of trees

feature_importances:
Column_25=54
Column_27=40
Column_5=33
Column_22=30
Column_24=28
Column_26=26
Column_0=18
Column_21=14
Column_3=12
Column_9=8
Column_13=8
Column_17=5
Column_1=4
Column_23=4
Column_2=2
Column_4=2
Column_6=2
Column_15=2
Column_18=2
Column_19=2
Column_7=1
Column_11=1
Column_14=1
Column_16=1

parameters:
[boosting: gbdt]
[objective: regression]
[metric: l2]
[tree_learner: serial]
[device_type: cpu]
[data_sample_strategy: bagging]
[data: ]
[valid: ]
[num_iterations: 10]
[learning_rate: 0.05]
[num_leaves: 31]
[num_threads: 0]
[seed: 0]
[deterministic: 0]
[force_col_wise: 0]
[force_row_wise: 0]
[histogram_pool_size: -1]
[max_depth: -1]
[min_data_in_leaf: 20]
[min_sum_hessian_in_leaf: 0.001]
[bagging_fraction: 1]
[pos_bagging_fraction: 1]
[neg_bagging_fraction: 1]
[bagging_freq: 1]
[bagging_seed: 3]
[bagging_by_query: 0]
[feature_fraction: 1]
[feature_fraction_bynode: 1]
[feature_fraction_seed: 2]
[extra_trees: 0]
[extra_seed: 6]
[early_stopping_round: 0]
[early_stopping_min_delta: 0]
[first_metric_only: 0]
[max_delta_step: 0]
[lambda_l1: 0]
[lambda_l2: 0]
[linear_lambda: 0]
[min_gain_to_split: 0]
[drop_rate: 0.1]
[max_drop: 50]
[skip_drop: 0.5]
[xgboost_dart_mode: 0]
[uniform_drop: 0]
[drop_seed: 4]
[top_rate: 0.2]
[other_rate: 0.1]
[min_data_per_group: 100]
[max_cat_threshold: 32]
[cat_l2: 10]
[cat_smooth: 10]
[max_cat_to_onehot: 4]
[top_k: 20]
[monotone_constraints: ]
[monotone_constraints_method: basic]
[monotone_penalty: 0]
[feature_contri: ]
[forcedsplits_filename: ]
[refit_decay_rate: 0.9]
[cegb_tradeoff: 1]
[cegb_penalty_split: 0]
[cegb_penalty_feature_lazy: ]
[cegb_penalty_feature_coupled: ]
[path_smooth: 0]
[interaction_constraints: ]
[verbosity: 0]
[saved_feature_importance_type: 0]
[use_quantized_grad: 0]
[num_grad_quant_bins: 4]
[quant_train_renew_leaf: 0]
[stochastic_rounding: 1]
[linear_tree: 0]
[max_bin: 255]
[max_bin_by_feature: ]
[min_data_in_bin: 3]
[bin_construct_sample_cnt: 200000]
[data_random_seed: 1]
[is_enable_sparse: 1]
[enable_bundle: 1]
[use_missing: 1]
[zero_as_missing: 0]
[feature_pre_filter: 1]
[pre_partition: 0]
[two_round: 0]
[header: 0]
[label_column: ]
[weight_column: ]
[group_column: ]
[ignore_column: ]
[categorical_feature: ]
[forcedbins_filename: ]
[precise_float_parser: 0]
[parser_config_file: ]
[objective_seed: 5]
[num_class: 1]
[is_unbalance: 0]
[scale_pos_weight: 1]
[sigmoid: 1]
[boost_from_average: 1]
[reg_sqrt: 0]
[alpha: 0.9]
[fair_c: 1]
[poisson_max_delta_step: 0.7]
[tweedie_variance_power: 1.5]
[lambdarank_truncation_level: 30]
[lambdarank_norm: 1]
[label_gain: ]
[lambdarank_position_bias_regularization: 0]
[eval_at: ]
[multi_error_top_k: 1]
[auc_mu_weights: ]
[num_machines: 1]
[local_listen_port: 12400]
[time_out: 120]
[machine_list_filename: ]
[machines: ]
[gpu_platform_id: -1]
[gpu_device_id: -1]
[gpu_use_dp: 0]
[num_gpu: 1]

end of parameters

pandas_categorical:null
